digraph Tree {
node [shape=box] ;
0 [label="X[0] <= 2.5\ngini = 0.42\nsamples = 500\nvalue = [350, 150]"] ;
1 [label="X[20] <= 0.5\ngini = 0.49\nsamples = 279\nvalue = [159, 120]"] ;
0 -> 1 [labeldistance=2.5, labelangle=45, headlabel="True"] ;
2 [label="X[2] <= 2.5\ngini = 0.476\nsamples = 105\nvalue = [41, 64]"] ;
1 -> 2 ;
3 [label="X[5] <= 1.5\ngini = 0.419\nsamples = 77\nvalue = [23, 54]"] ;
2 -> 3 ;
4 [label="gini = 0.278\nsamples = 6\nvalue = [5, 1]"] ;
3 -> 4 ;
5 [label="X[8] <= 1.5\ngini = 0.378\nsamples = 71\nvalue = [18, 53]"] ;
3 -> 5 ;
6 [label="gini = 0.49\nsamples = 14\nvalue = [8, 6]"] ;
5 -> 6 ;
7 [label="gini = 0.289\nsamples = 57\nvalue = [10, 47]"] ;
5 -> 7 ;
8 [label="X[5] <= 4.5\ngini = 0.459\nsamples = 28\nvalue = [18, 10]"] ;
2 -> 8 ;
9 [label="X[1] <= 17.0\ngini = 0.32\nsamples = 20\nvalue = [16, 4]"] ;
8 -> 9 ;
10 [label="gini = 0.0\nsamples = 8\nvalue = [8, 0]"] ;
9 -> 10 ;
11 [label="gini = 0.444\nsamples = 12\nvalue = [8, 4]"] ;
9 -> 11 ;
12 [label="gini = 0.375\nsamples = 8\nvalue = [2, 6]"] ;
8 -> 12 ;
13 [label="X[1] <= 22.5\ngini = 0.437\nsamples = 174\nvalue = [118, 56]"] ;
1 -> 13 ;
14 [label="X[8] <= 3.5\ngini = 0.34\nsamples = 106\nvalue = [83, 23]"] ;
13 -> 14 ;
15 [label="X[8] <= 1.5\ngini = 0.308\nsamples = 100\nvalue = [81, 19]"] ;
14 -> 15 ;
16 [label="gini = 0.165\nsamples = 44\nvalue = [40, 4]"] ;
15 -> 16 ;
17 [label="gini = 0.392\nsamples = 56\nvalue = [41, 15]"] ;
15 -> 17 ;
18 [label="gini = 0.444\nsamples = 6\nvalue = [2, 4]"] ;
14 -> 18 ;
19 [label="X[4] <= 1.5\ngini = 0.5\nsamples = 68\nvalue = [35, 33]"] ;
13 -> 19 ;
20 [label="X[16] <= 0.5\ngini = 0.476\nsamples = 46\nvalue = [18, 28]"] ;
19 -> 20 ;
21 [label="gini = 0.439\nsamples = 40\nvalue = [13, 27]"] ;
20 -> 21 ;
22 [label="gini = 0.278\nsamples = 6\nvalue = [5, 1]"] ;
20 -> 22 ;
23 [label="X[0] <= 1.5\ngini = 0.351\nsamples = 22\nvalue = [17, 5]"] ;
19 -> 23 ;
24 [label="gini = 0.494\nsamples = 9\nvalue = [5, 4]"] ;
23 -> 24 ;
25 [label="gini = 0.142\nsamples = 13\nvalue = [12, 1]"] ;
23 -> 25 ;
26 [label="X[3] <= 93.5\ngini = 0.235\nsamples = 221\nvalue = [191, 30]"] ;
0 -> 26 [labeldistance=2.5, labelangle=-45, headlabel="False"] ;
27 [label="X[2] <= 3.5\ngini = 0.213\nsamples = 214\nvalue = [188, 26]"] ;
26 -> 27 ;
28 [label="X[3] <= 17.5\ngini = 0.278\nsamples = 144\nvalue = [120, 24]"] ;
27 -> 28 ;
29 [label="X[12] <= 1.5\ngini = 0.107\nsamples = 53\nvalue = [50, 3]"] ;
28 -> 29 ;
30 [label="gini = 0.043\nsamples = 46\nvalue = [45, 1]"] ;
29 -> 30 ;
31 [label="gini = 0.408\nsamples = 7\nvalue = [5, 2]"] ;
29 -> 31 ;
32 [label="X[4] <= 1.5\ngini = 0.355\nsamples = 91\nvalue = [70, 21]"] ;
28 -> 32 ;
33 [label="gini = 0.46\nsamples = 39\nvalue = [25, 14]"] ;
32 -> 33 ;
34 [label="gini = 0.233\nsamples = 52\nvalue = [45, 7]"] ;
32 -> 34 ;
35 [label="X[9] <= 30.5\ngini = 0.056\nsamples = 70\nvalue = [68, 2]"] ;
27 -> 35 ;
36 [label="X[1] <= 16.5\ngini = 0.172\nsamples = 21\nvalue = [19, 2]"] ;
35 -> 36 ;
37 [label="gini = 0.0\nsamples = 12\nvalue = [12, 0]"] ;
36 -> 37 ;
38 [label="gini = 0.346\nsamples = 9\nvalue = [7, 2]"] ;
36 -> 38 ;
39 [label="gini = 0.0\nsamples = 49\nvalue = [49, 0]"] ;
35 -> 39 ;
40 [label="gini = 0.49\nsamples = 7\nvalue = [3, 4]"] ;
26 -> 40 ;
}
